<?xml version="1.0" encoding="UTF-8" standalone="yes"?>
<PMML xmlns="http://www.dmg.org/PMML-4_3" xmlns:data="http://jpmml.org/jpmml-model/InlineTable" version="4.3">
	<Header>
		<Application name="JPMML-SkLearn" version="1.5.12"/>
		<Timestamp>2019-03-04T16:00:03Z</Timestamp>
	</Header>
	<MiningBuildTask>
		<Extension>PMMLPipeline(steps=[('classifier', DecisionTreeClassifier(class_weight=None, criterion='gini', max_depth=None,
            max_features=None, max_leaf_nodes=None,
            min_impurity_decrease=0.0, min_impurity_split=None,
            min_samples_leaf=1, min_samples_split=2,
            min_weight_fraction_leaf=0.0, presort=False, random_state=None,
            splitter='best'))])</Extension>
	</MiningBuildTask>
	<DataDictionary>
		<DataField name="Label" optype="categorical" dataType="double">
			<Value value="0"/>
			<Value value="1"/>
		</DataField>
		<DataField name="day" optype="continuous" dataType="float"/>
		<DataField name="month" optype="continuous" dataType="float"/>
		<DataField name="ZIPCODE" optype="continuous" dataType="float"/>
		<DataField name="Amount" optype="continuous" dataType="float"/>
	</DataDictionary>
	<TransformationDictionary>
		<DerivedField name="double(Amount)" optype="continuous" dataType="double">
			<FieldRef field="Amount"/>
		</DerivedField>
		<DerivedField name="double(ZIPCODE)" optype="continuous" dataType="double">
			<FieldRef field="ZIPCODE"/>
		</DerivedField>
		<DerivedField name="double(day)" optype="continuous" dataType="double">
			<FieldRef field="day"/>
		</DerivedField>
		<DerivedField name="double(month)" optype="continuous" dataType="double">
			<FieldRef field="month"/>
		</DerivedField>
	</TransformationDictionary>
	<TreeModel functionName="classification" missingValueStrategy="nullPrediction" splitCharacteristic="multiSplit">
		<MiningSchema>
			<MiningField name="Label" usageType="target"/>
			<MiningField name="Amount"/>
			<MiningField name="ZIPCODE"/>
			<MiningField name="day"/>
			<MiningField name="month"/>
		</MiningSchema>
		<Output>
			<OutputField name="probability(0)" optype="continuous" dataType="double" feature="probability" value="0"/>
			<OutputField name="probability(1)" optype="continuous" dataType="double" feature="probability" value="1"/>
		</Output>
		<Node>
			<True/>
			<Node score="0" recordCount="1481116.0">
				<SimplePredicate field="double(Amount)" operator="lessOrEqual" value="4.5"/>
				<ScoreDistribution value="0" recordCount="1481116.0"/>
				<ScoreDistribution value="1" recordCount="0.0"/>
			</Node>
			<Node>
				<SimplePredicate field="double(Amount)" operator="lessOrEqual" value="5.5"/>
				<Node>
					<SimplePredicate field="double(ZIPCODE)" operator="lessOrEqual" value="3192.5"/>
					<Node>
						<SimplePredicate field="double(ZIPCODE)" operator="lessOrEqual" value="1092.5"/>
						<Node>
							<SimplePredicate field="double(ZIPCODE)" operator="lessOrEqual" value="1046.5"/>
							<Node>
								<SimplePredicate field="double(ZIPCODE)" operator="lessOrEqual" value="1042.5"/>
								<Node>
									<SimplePredicate field="double(ZIPCODE)" operator="lessOrEqual" value="1023.5"/>
									<Node>
										<SimplePredicate field="double(ZIPCODE)" operator="lessOrEqual" value="1022.5"/>
										<Node>
											<SimplePredicate field="double(ZIPCODE)" operator="lessOrEqual" value="1014.5"/>
											<Node score="0" recordCount="153.0">
												<SimplePredicate field="double(ZIPCODE)" operator="lessOrEqual" value="1013.5"/>
												<ScoreDistribution value="0" recordCount="153.0"/>
												<ScoreDistribution value="1" recordCount="0.0"/>
											</Node>
											<Node score="1" recordCount="13.0">
												<True/>
												<ScoreDistribution value="0" recordCount="0.0"/>
												<ScoreDistribution value="1" recordCount="13.0"/>
											</Node>
										</Node>
										<Node score="0" recordCount="356.0">
											<True/>
											<ScoreDistribution value="0" recordCount="356.0"/>
											<ScoreDistribution value="1" recordCount="0.0"/>
										</Node>
									</Node>
									<Node score="1" recordCount="31.0">
										<True/>
										<ScoreDistribution value="0" recordCount="0.0"/>
										<ScoreDistribution value="1" recordCount="31.0"/>
									</Node>
								</Node>
								<Node score="0" recordCount="705.0">
									<True/>
									<ScoreDistribution value="0" recordCount="705.0"/>
									<ScoreDistribution value="1" recordCount="0.0"/>
								</Node>
							</Node>
							<Node score="1" recordCount="34.0">
								<True/>
								<ScoreDistribution value="0" recordCount="0.0"/>
								<ScoreDistribution value="1" recordCount="34.0"/>
							</Node>
						</Node>
						<Node score="0" recordCount="2659.0">
							<True/>
							<ScoreDistribution value="0" recordCount="2659.0"/>
							<ScoreDistribution value="1" recordCount="0.0"/>
						</Node>
					</Node>
					<Node score="1" recordCount="237.0">
						<SimplePredicate field="double(ZIPCODE)" operator="lessOrEqual" value="1096.5"/>
						<ScoreDistribution value="0" recordCount="0.0"/>
						<ScoreDistribution value="1" recordCount="237.0"/>
					</Node>
					<Node>
						<SimplePredicate field="double(ZIPCODE)" operator="lessOrEqual" value="2987.5"/>
						<Node>
							<SimplePredicate field="double(ZIPCODE)" operator="lessOrEqual" value="1187.5"/>
							<Node>
								<SimplePredicate field="double(ZIPCODE)" operator="lessOrEqual" value="1138.0"/>
								<Node>
									<SimplePredicate field="double(ZIPCODE)" operator="lessOrEqual" value="1131.5"/>
									<Node>
										<SimplePredicate field="double(ZIPCODE)" operator="lessOrEqual" value="1101.5"/>
										<Node score="0" recordCount="112.0">
											<SimplePredicate field="double(ZIPCODE)" operator="lessOrEqual" value="1099.5"/>
											<ScoreDistribution value="0" recordCount="112.0"/>
											<ScoreDistribution value="1" recordCount="0.0"/>
										</Node>
										<Node score="1" recordCount="45.0">
											<True/>
											<ScoreDistribution value="0" recordCount="0.0"/>
											<ScoreDistribution value="1" recordCount="45.0"/>
										</Node>
									</Node>
									<Node score="0" recordCount="417.0">
										<SimplePredicate field="double(ZIPCODE)" operator="lessOrEqual" value="1107.5"/>
										<ScoreDistribution value="0" recordCount="417.0"/>
										<ScoreDistribution value="1" recordCount="0.0"/>
									</Node>
									<Node score="1" recordCount="14.0">
										<SimplePredicate field="double(ZIPCODE)" operator="lessOrEqual" value="1108.5"/>
										<ScoreDistribution value="0" recordCount="0.0"/>
										<ScoreDistribution value="1" recordCount="14.0"/>
									</Node>
									<Node>
										<SimplePredicate field="double(ZIPCODE)" operator="lessOrEqual" value="1116.0"/>
										<Node score="0" recordCount="165.0">
											<SimplePredicate field="double(ZIPCODE)" operator="lessOrEqual" value="1114.5"/>
											<ScoreDistribution value="0" recordCount="165.0"/>
											<ScoreDistribution value="1" recordCount="0.0"/>
										</Node>
										<Node score="1" recordCount="19.0">
											<True/>
											<ScoreDistribution value="0" recordCount="0.0"/>
											<ScoreDistribution value="1" recordCount="19.0"/>
										</Node>
									</Node>
									<Node score="0" recordCount="174.0">
										<True/>
										<ScoreDistribution value="0" recordCount="174.0"/>
										<ScoreDistribution value="1" recordCount="0.0"/>
									</Node>
								</Node>
								<Node score="1" recordCount="79.0">
									<True/>
									<ScoreDistribution value="0" recordCount="0.0"/>
									<ScoreDistribution value="1" recordCount="79.0"/>
								</Node>
							</Node>
							<Node>
								<SimplePredicate field="double(ZIPCODE)" operator="lessOrEqual" value="1182.5"/>
								<Node score="0" recordCount="344.0">
									<SimplePredicate field="double(ZIPCODE)" operator="lessOrEqual" value="1181.5"/>
									<ScoreDistribution value="0" recordCount="344.0"/>
									<ScoreDistribution value="1" recordCount="0.0"/>
								</Node>
								<Node score="1" recordCount="15.0">
									<True/>
									<ScoreDistribution value="0" recordCount="0.0"/>
									<ScoreDistribution value="1" recordCount="15.0"/>
								</Node>
							</Node>
							<Node score="0" recordCount="417.0">
								<True/>
								<ScoreDistribution value="0" recordCount="417.0"/>
								<ScoreDistribution value="1" recordCount="0.0"/>
							</Node>
						</Node>
						<Node>
							<SimplePredicate field="double(ZIPCODE)" operator="lessOrEqual" value="1975.5"/>
							<Node>
								<SimplePredicate field="double(ZIPCODE)" operator="lessOrEqual" value="1945.5"/>
								<Node>
									<SimplePredicate field="double(ZIPCODE)" operator="lessOrEqual" value="1227.0"/>
									<Node>
										<SimplePredicate field="double(ZIPCODE)" operator="lessOrEqual" value="1212.5"/>
										<Node score="1" recordCount="43.0">
											<SimplePredicate field="double(ZIPCODE)" operator="lessOrEqual" value="1188.5"/>
											<ScoreDistribution value="0" recordCount="0.0"/>
											<ScoreDistribution value="1" recordCount="43.0"/>
										</Node>
										<Node score="0" recordCount="163.0">
											<True/>
											<ScoreDistribution value="0" recordCount="163.0"/>
											<ScoreDistribution value="1" recordCount="0.0"/>
										</Node>
									</Node>
									<Node score="1" recordCount="189.0">
										<SimplePredicate field="double(ZIPCODE)" operator="lessOrEqual" value="1219.0"/>
										<ScoreDistribution value="0" recordCount="0.0"/>
										<ScoreDistribution value="1" recordCount="189.0"/>
									</Node>
									<Node score="0" recordCount="89.0">
										<SimplePredicate field="double(ZIPCODE)" operator="lessOrEqual" value="1221.5"/>
										<ScoreDistribution value="0" recordCount="89.0"/>
										<ScoreDistribution value="1" recordCount="0.0"/>
									</Node>
									<Node score="1" recordCount="99.0">
										<True/>
										<ScoreDistribution value="0" recordCount="0.0"/>
										<ScoreDistribution value="1" recordCount="99.0"/>
									</Node>
								</Node>
								<Node score="0" recordCount="467.0">
									<SimplePredicate field="double(ZIPCODE)" operator="lessOrEqual" value="1313.5"/>
									<ScoreDistribution value="0" recordCount="467.0"/>
									<ScoreDistribution value="1" recordCount="0.0"/>
								</Node>
								<Node>
									<SimplePredicate field="double(ZIPCODE)" operator="lessOrEqual" value="1323.5"/>
									<Node>
										<SimplePredicate field="double(ZIPCODE)" operator="lessOrEqual" value="1320.0"/>
										<Node>
											<SimplePredicate field="double(ZIPCODE)" operator="lessOrEqual" value="1318.5"/>
											<Node score="1" recordCount="58.0">
												<SimplePredicate field="double(ZIPCODE)" operator="lessOrEqual" value="1315.5"/>
												<ScoreDistribution value="0" recordCount="0.0"/>
												<ScoreDistribution value="1" recordCount="58.0"/>
											</Node>
											<Node score="0" recordCount="6.0">
												<SimplePredicate field="double(ZIPCODE)" operator="lessOrEqual" value="1317.5"/>
												<ScoreDistribution value="0" recordCount="6.0"/>
												<ScoreDistribution value="1" recordCount="0.0"/>
											</Node>
											<Node score="1" recordCount="12.0">
												<True/>
												<ScoreDistribution value="0" recordCount="0.0"/>
												<ScoreDistribution value="1" recordCount="12.0"/>
											</Node>
										</Node>
										<Node score="0" recordCount="10.0">
											<True/>
											<ScoreDistribution value="0" recordCount="10.0"/>
											<ScoreDistribution value="1" recordCount="0.0"/>
										</Node>
									</Node>
									<Node>
										<SimplePredicate field="double(ZIPCODE)" operator="lessOrEqual" value="1322.5"/>
										<Node score="1" recordCount="20.0">
											<SimplePredicate field="double(ZIPCODE)" operator="lessOrEqual" value="1321.5"/>
											<ScoreDistribution value="0" recordCount="0.0"/>
											<ScoreDistribution value="1" recordCount="20.0"/>
										</Node>
										<Node score="0" recordCount="1.0">
											<True/>
											<ScoreDistribution value="0" recordCount="1.0"/>
											<ScoreDistribution value="1" recordCount="0.0"/>
										</Node>
									</Node>
									<Node score="1" recordCount="54.0">
										<True/>
										<ScoreDistribution value="0" recordCount="0.0"/>
										<ScoreDistribution value="1" recordCount="54.0"/>
									</Node>
								</Node>
								<Node>
									<SimplePredicate field="double(ZIPCODE)" operator="lessOrEqual" value="1703.5"/>
									<Node>
										<SimplePredicate field="double(ZIPCODE)" operator="lessOrEqual" value="1620.0"/>
										<Node>
											<SimplePredicate field="double(ZIPCODE)" operator="lessOrEqual" value="1612.0"/>
											<Node score="0" recordCount="225.0">
												<SimplePredicate field="double(ZIPCODE)" operator="lessOrEqual" value="1325.5"/>
												<ScoreDistribution value="0" recordCount="225.0"/>
												<ScoreDistribution value="1" recordCount="0.0"/>
											</Node>
											<Node>
												<SimplePredicate field="double(ZIPCODE)" operator="lessOrEqual" value="1372.0"/>
												<Node>
													<SimplePredicate field="double(ZIPCODE)" operator="lessOrEqual" value="1334.5"/>
													<Node score="1" recordCount="52.0">
														<SimplePredicate field="double(ZIPCODE)" operator="lessOrEqual" value="1330.0"/>
														<ScoreDistribution value="0" recordCount="0.0"/>
														<ScoreDistribution value="1" recordCount="52.0"/>
													</Node>
													<Node score="0" recordCount="120.0">
														<True/>
														<ScoreDistribution value="0" recordCount="120.0"/>
														<ScoreDistribution value="1" recordCount="0.0"/>
													</Node>
												</Node>
												<Node>
													<SimplePredicate field="double(ZIPCODE)" operator="lessOrEqual" value="1352.0"/>
													<Node score="1" recordCount="119.0">
														<SimplePredicate field="double(ZIPCODE)" operator="lessOrEqual" value="1340.0"/>
														<ScoreDistribution value="0" recordCount="0.0"/>
														<ScoreDistribution value="1" recordCount="119.0"/>
													</Node>
													<Node score="0" recordCount="5.0">
														<SimplePredicate field="double(ZIPCODE)" operator="lessOrEqual" value="1347.0"/>
														<ScoreDistribution value="0" recordCount="5.0"/>
														<ScoreDistribution value="1" recordCount="0.0"/>
													</Node>
													<Node score="1" recordCount="43.0">
														<True/>
														<ScoreDistribution value="0" recordCount="0.0"/>
														<ScoreDistribution value="1" recordCount="43.0"/>
													</Node>
												</Node>
												<Node score="0" recordCount="31.0">
													<SimplePredicate field="double(ZIPCODE)" operator="lessOrEqual" value="1362.5"/>
													<ScoreDistribution value="0" recordCount="31.0"/>
													<ScoreDistribution value="1" recordCount="0.0"/>
												</Node>
												<Node score="1" recordCount="74.0">
													<True/>
													<ScoreDistribution value="0" recordCount="0.0"/>
													<ScoreDistribution value="1" recordCount="74.0"/>
												</Node>
											</Node>
											<Node score="0" recordCount="355.0">
												<SimplePredicate field="double(ZIPCODE)" operator="lessOrEqual" value="1397.0"/>
												<ScoreDistribution value="0" recordCount="355.0"/>
												<ScoreDistribution value="1" recordCount="0.0"/>
											</Node>
											<Node>
												<SimplePredicate field="double(ZIPCODE)" operator="lessOrEqual" value="1404.5"/>
												<Node>
													<SimplePredicate field="double(ZIPCODE)" operator="lessOrEqual" value="1400.0"/>
													<Node score="1" recordCount="39.0">
														<SimplePredicate field="double(ZIPCODE)" operator="lessOrEqual" value="1398.5"/>
														<ScoreDistribution value="0" recordCount="0.0"/>
														<ScoreDistribution value="1" recordCount="39.0"/>
													</Node>
													<Node score="0" recordCount="7.0">
														<True/>
														<ScoreDistribution value="0" recordCount="7.0"/>
														<ScoreDistribution value="1" recordCount="0.0"/>
													</Node>
												</Node>
												<Node score="1" recordCount="154.0">
													<True/>
													<ScoreDistribution value="0" recordCount="0.0"/>
													<ScoreDistribution value="1" recordCount="154.0"/>
												</Node>
											</Node>
											<Node>
												<SimplePredicate field="double(ZIPCODE)" operator="lessOrEqual" value="1442.5"/>
												<Node score="0" recordCount="407.0">
													<SimplePredicate field="double(ZIPCODE)" operator="lessOrEqual" value="1423.5"/>
													<ScoreDistribution value="0" recordCount="407.0"/>
													<ScoreDistribution value="1" recordCount="0.0"/>
												</Node>
												<Node score="1" recordCount="12.0">
													<SimplePredicate field="double(ZIPCODE)" operator="lessOrEqual" value="1425.0"/>
													<ScoreDistribution value="0" recordCount="0.0"/>
													<ScoreDistribution value="1" recordCount="12.0"/>
												</Node>
												<Node score="0" recordCount="248.0">
													<True/>
													<ScoreDistribution value="0" recordCount="248.0"/>
													<ScoreDistribution value="1" recordCount="0.0"/>
												</Node>
											</Node>
											<Node score="1" recordCount="96.0">
												<SimplePredicate field="double(ZIPCODE)" operator="lessOrEqual" value="1444.5"/>
												<ScoreDistribution value="0" recordCount="0.0"/>
												<ScoreDistribution value="1" recordCount="96.0"/>
											</Node>
											<Node>
												<SimplePredicate field="double(ZIPCODE)" operator="lessOrEqual" value="1601.5"/>
												<Node>
													<SimplePredicate field="double(ZIPCODE)" operator="lessOrEqual" value="1501.5"/>
													<Node>
														<SimplePredicate field="double(ZIPCODE)" operator="lessOrEqual" value="1458.5"/>
														<Node>
															<SimplePredicate field="double(ZIPCODE)" operator="lessOrEqual" value="1446.5"/>
															<Node score="0" recordCount="66.0">
																<SimplePredicate field="double(ZIPCODE)" operator="lessOrEqual" value="1445.5"/>
																<ScoreDistribution value="0" recordCount="66.0"/>
																<ScoreDistribution value="1" recordCount="0.0"/>
															</Node>
															<Node score="1" recordCount="41.0">
																<True/>
																<ScoreDistribution value="0" recordCount="0.0"/>
																<ScoreDistribution value="1" recordCount="41.0"/>
															</Node>
														</Node>
														<Node score="0" recordCount="186.0">
															<True/>
															<ScoreDistribution value="0" recordCount="186.0"/>
															<ScoreDistribution value="1" recordCount="0.0"/>
														</Node>
													</Node>
													<Node>
														<SimplePredicate field="double(ZIPCODE)" operator="lessOrEqual" value="1495.0"/>
														<Node score="1" recordCount="53.0">
															<SimplePredicate field="double(ZIPCODE)" operator="lessOrEqual" value="1462.5"/>
															<ScoreDistribution value="0" recordCount="0.0"/>
															<ScoreDistribution value="1" recordCount="53.0"/>
														</Node>
														<Node score="0" recordCount="27.0">
															<SimplePredicate field="double(ZIPCODE)" operator="lessOrEqual" value="1480.0"/>
															<ScoreDistribution value="0" recordCount="27.0"/>
															<ScoreDistribution value="1" recordCount="0.0"/>
														</Node>
														<Node score="1" recordCount="26.0">
															<SimplePredicate field="double(ZIPCODE)" operator="lessOrEqual" value="1484.5"/>
															<ScoreDistribution value="0" recordCount="0.0"/>
															<ScoreDistribution value="1" recordCount="26.0"/>
														</Node>
														<Node score="0" recordCount="9.0">
															<True/>
															<ScoreDistribution value="0" recordCount="9.0"/>
															<ScoreDistribution value="1" recordCount="0.0"/>
														</Node>
													</Node>
													<Node score="1" recordCount="65.0">
														<True/>
														<ScoreDistribution value="0" recordCount="0.0"/>
														<ScoreDistribution value="1" recordCount="65.0"/>
													</Node>
												</Node>
												<Node score="0" recordCount="290.0">
													<SimplePredicate field="double(ZIPCODE)" operator="lessOrEqual" value="1504.5"/>
													<ScoreDistribution value="0" recordCount="290.0"/>
													<ScoreDistribution value="1" recordCount="0.0"/>
												</Node>
												<Node score="1" recordCount="58.0">
													<SimplePredicate field="double(ZIPCODE)" operator="lessOrEqual" value="1505.5"/>
													<ScoreDistribution value="0" recordCount="0.0"/>
													<ScoreDistribution value="1" recordCount="58.0"/>
												</Node>
												<Node>
													<SimplePredicate field="double(ZIPCODE)" operator="lessOrEqual" value="1542.5"/>
													<Node>
														<SimplePredicate field="double(ZIPCODE)" operator="lessOrEqual" value="1510.0"/>
														<Node score="0" recordCount="126.0">
															<SimplePredicate field="double(ZIPCODE)" operator="lessOrEqual" value="1507.5"/>
															<ScoreDistribution value="0" recordCount="126.0"/>
															<ScoreDistribution value="1" recordCount="0.0"/>
														</Node>
														<Node score="1" recordCount="70.0">
															<True/>
															<ScoreDistribution value="0" recordCount="0.0"/>
															<ScoreDistribution value="1" recordCount="70.0"/>
														</Node>
													</Node>
													<Node score="0" recordCount="304.0">
														<True/>
														<ScoreDistribution value="0" recordCount="304.0"/>
														<ScoreDistribution value="1" recordCount="0.0"/>
													</Node>
												</Node>
												<Node score="1" recordCount="66.0">
													<SimplePredicate field="double(ZIPCODE)" operator="lessOrEqual" value="1547.5"/>
													<ScoreDistribution value="0" recordCount="0.0"/>
													<ScoreDistribution value="1" recordCount="66.0"/>
												</Node>
												<Node score="0" recordCount="92.0">
													<SimplePredicate field="double(ZIPCODE)" operator="lessOrEqual" value="1561.5"/>
													<ScoreDistribution value="0" recordCount="92.0"/>
													<ScoreDistribution value="1" recordCount="0.0"/>
												</Node>
												<Node score="1" recordCount="38.0">
													<SimplePredicate field="double(ZIPCODE)" operator="lessOrEqual" value="1564.0"/>
													<ScoreDistribution value="0" recordCount="0.0"/>
													<ScoreDistribution value="1" recordCount="38.0"/>
												</Node>
												<Node>
													<SimplePredicate field="double(ZIPCODE)" operator="lessOrEqual" value="1584.0"/>
													<Node score="0" recordCount="72.0">
														<SimplePredicate field="double(ZIPCODE)" operator="lessOrEqual" value="1566.5"/>
														<ScoreDistribution value="0" recordCount="72.0"/>
														<ScoreDistribution value="1" recordCount="0.0"/>
													</Node>
													<Node score="1" recordCount="16.0">
														<True/>
														<ScoreDistribution value="0" recordCount="0.0"/>
														<ScoreDistribution value="1" recordCount="16.0"/>
													</Node>
												</Node>
												<Node score="0" recordCount="78.0">
													<True/>
													<ScoreDistribution value="0" recordCount="78.0"/>
													<ScoreDistribution value="1" recordCount="0.0"/>
												</Node>
											</Node>
											<Node score="1" recordCount="94.0">
												<SimplePredicate field="double(ZIPCODE)" operator="lessOrEqual" value="1606.5"/>
												<ScoreDistribution value="0" recordCount="0.0"/>
												<ScoreDistribution value="1" recordCount="94.0"/>
											</Node>
											<Node score="0" recordCount="79.0">
												<True/>
												<ScoreDistribution value="0" recordCount="79.0"/>
												<ScoreDistribution value="1" recordCount="0.0"/>
											</Node>
										</Node>
										<Node>
											<SimplePredicate field="double(ZIPCODE)" operator="lessOrEqual" value="1615.0"/>
											<Node score="1" recordCount="58.0">
												<SimplePredicate field="double(ZIPCODE)" operator="lessOrEqual" value="1613.5"/>
												<ScoreDistribution value="0" recordCount="0.0"/>
												<ScoreDistribution value="1" recordCount="58.0"/>
											</Node>
											<Node score="0" recordCount="5.0">
												<True/>
												<ScoreDistribution value="0" recordCount="5.0"/>
												<ScoreDistribution value="1" recordCount="0.0"/>
											</Node>
										</Node>
										<Node score="1" recordCount="62.0">
											<SimplePredicate field="double(day)" operator="lessOrEqual" value="19.5"/>
											<ScoreDistribution value="0" recordCount="0.0"/>
											<ScoreDistribution value="1" recordCount="62.0"/>
										</Node>
										<Node>
											<SimplePredicate field="double(day)" operator="lessOrEqual" value="20.5"/>
											<Node score="0" recordCount="1.0">
												<SimplePredicate field="double(ZIPCODE)" operator="lessOrEqual" value="1618.0"/>
												<ScoreDistribution value="0" recordCount="1.0"/>
												<ScoreDistribution value="1" recordCount="0.0"/>
											</Node>
											<Node score="1" recordCount="3.0">
												<True/>
												<ScoreDistribution value="0" recordCount="0.0"/>
												<ScoreDistribution value="1" recordCount="3.0"/>
											</Node>
										</Node>
										<Node score="1" recordCount="31.0">
											<True/>
											<ScoreDistribution value="0" recordCount="0.0"/>
											<ScoreDistribution value="1" recordCount="31.0"/>
										</Node>
									</Node>
									<Node>
										<SimplePredicate field="double(ZIPCODE)" operator="lessOrEqual" value="1683.0"/>
										<Node>
											<SimplePredicate field="double(ZIPCODE)" operator="lessOrEqual" value="1624.5"/>
											<Node score="0" recordCount="191.0">
												<SimplePredicate field="double(ZIPCODE)" operator="lessOrEqual" value="1623.5"/>
												<ScoreDistribution value="0" recordCount="191.0"/>
												<ScoreDistribution value="1" recordCount="0.0"/>
											</Node>
											<Node score="1" recordCount="29.0">
												<True/>
												<ScoreDistribution value="0" recordCount="0.0"/>
												<ScoreDistribution value="1" recordCount="29.0"/>
											</Node>
										</Node>
										<Node score="0" recordCount="328.0">
											<True/>
											<ScoreDistribution value="0" recordCount="328.0"/>
											<ScoreDistribution value="1" recordCount="0.0"/>
										</Node>
									</Node>
									<Node>
										<SimplePredicate field="double(ZIPCODE)" operator="lessOrEqual" value="1701.5"/>
										<Node>
											<SimplePredicate field="double(ZIPCODE)" operator="lessOrEqual" value="1699.0"/>
											<Node score="1" recordCount="27.0">
												<SimplePredicate field="double(ZIPCODE)" operator="lessOrEqual" value="1687.5"/>
												<ScoreDistribution value="0" recordCount="0.0"/>
												<ScoreDistribution value="1" recordCount="27.0"/>
											</Node>
											<Node score="0" recordCount="115.0">
												<SimplePredicate field="double(ZIPCODE)" operator="lessOrEqual" value="1691.0"/>
												<ScoreDistribution value="0" recordCount="115.0"/>
												<ScoreDistribution value="1" recordCount="0.0"/>
											</Node>
											<Node score="1" recordCount="37.0">
												<SimplePredicate field="double(ZIPCODE)" operator="lessOrEqual" value="1694.0"/>
												<ScoreDistribution value="0" recordCount="0.0"/>
												<ScoreDistribution value="1" recordCount="37.0"/>
											</Node>
											<Node score="0" recordCount="34.0">
												<True/>
												<ScoreDistribution value="0" recordCount="34.0"/>
												<ScoreDistribution value="1" recordCount="0.0"/>
											</Node>
										</Node>
										<Node score="1" recordCount="55.0">
											<True/>
											<ScoreDistribution value="0" recordCount="0.0"/>
											<ScoreDistribution value="1" recordCount="55.0"/>
										</Node>
									</Node>
									<Node score="0" recordCount="209.0">
										<True/>
										<ScoreDistribution value="0" recordCount="209.0"/>
										<ScoreDistribution value="1" recordCount="0.0"/>
									</Node>
								</Node>
								<Node>
									<SimplePredicate field="double(ZIPCODE)" operator="lessOrEqual" value="1723.5"/>
									<Node score="1" recordCount="115.0">
										<SimplePredicate field="double(ZIPCODE)" operator="lessOrEqual" value="1708.0"/>
										<ScoreDistribution value="0" recordCount="0.0"/>
										<ScoreDistribution value="1" recordCount="115.0"/>
									</Node>
									<Node score="0" recordCount="5.0">
										<SimplePredicate field="double(ZIPCODE)" operator="lessOrEqual" value="1712.0"/>
										<ScoreDistribution value="0" recordCount="5.0"/>
										<ScoreDistribution value="1" recordCount="0.0"/>
									</Node>
									<Node>
										<SimplePredicate field="double(ZIPCODE)" operator="lessOrEqual" value="1719.5"/>
										<Node>
											<SimplePredicate field="double(ZIPCODE)" operator="lessOrEqual" value="1717.0"/>
											<Node>
												<SimplePredicate field="double(month)" operator="lessOrEqual" value="11.5"/>
												<Node score="1" recordCount="75.0">
													<SimplePredicate field="double(day)" operator="lessOrEqual" value="28.5"/>
													<ScoreDistribution value="0" recordCount="0.0"/>
													<ScoreDistribution value="1" recordCount="75.0"/>
												</Node>
												<Node score="1" recordCount="4.0">
													<SimplePredicate field="double(month)" operator="lessOrEqual" value="7.0"/>
													<ScoreDistribution value="0" recordCount="0.0"/>
													<ScoreDistribution value="1" recordCount="4.0"/>
												</Node>
												<Node score="0" recordCount="1.0">
													<SimplePredicate field="double(day)" operator="lessOrEqual" value="29.5"/>
													<ScoreDistribution value="0" recordCount="1.0"/>
													<ScoreDistribution value="1" recordCount="0.0"/>
												</Node>
												<Node score="1" recordCount="3.0">
													<True/>
													<ScoreDistribution value="0" recordCount="0.0"/>
													<ScoreDistribution value="1" recordCount="3.0"/>
												</Node>
											</Node>
											<Node score="0" recordCount="1.0">
												<SimplePredicate field="double(day)" operator="lessOrEqual" value="4.5"/>
												<ScoreDistribution value="0" recordCount="1.0"/>
												<ScoreDistribution value="1" recordCount="0.0"/>
											</Node>
											<Node score="1" recordCount="4.0">
												<True/>
												<ScoreDistribution value="0" recordCount="0.0"/>
												<ScoreDistribution value="1" recordCount="4.0"/>
											</Node>
										</Node>
										<Node score="0" recordCount="14.0">
											<True/>
											<ScoreDistribution value="0" recordCount="14.0"/>
											<ScoreDistribution value="1" recordCount="0.0"/>
										</Node>
									</Node>
									<Node score="1" recordCount="96.0">
										<True/>
										<ScoreDistribution value="0" recordCount="0.0"/>
										<ScoreDistribution value="1" recordCount="96.0"/>
									</Node>
								</Node>
								<Node score="0" recordCount="183.0">
									<SimplePredicate field="double(ZIPCODE)" operator="lessOrEqual" value="1741.5"/>
									<ScoreDistribution value="0" recordCount="183.0"/>
									<ScoreDistribution value="1" recordCount="0.0"/>
								</Node>
								<Node>
									<SimplePredicate field="double(ZIPCODE)" operator="lessOrEqual" value="1778.0"/>
									<Node>
										<SimplePredicate field="double(ZIPCODE)" operator="lessOrEqual" value="1769.5"/>
										<Node>
											<SimplePredicate field="double(ZIPCODE)" operator="lessOrEqual" value="1750.0"/>
											<Node score="1" recordCount="43.0">
												<SimplePredicate field="double(ZIPCODE)" operator="lessOrEqual" value="1743.0"/>
												<ScoreDistribution value="0" recordCount="0.0"/>
												<ScoreDistribution value="1" recordCount="43.0"/>
											</Node>
											<Node score="0" recordCount="23.0">
												<SimplePredicate field="double(ZIPCODE)" operator="lessOrEqual" value="1748.0"/>
												<ScoreDistribution value="0" recordCount="23.0"/>
												<ScoreDistribution value="1" recordCount="0.0"/>
											</Node>
											<Node score="1" recordCount="32.0">
												<True/>
												<ScoreDistribution value="0" recordCount="0.0"/>
												<ScoreDistribution value="1" recordCount="32.0"/>
											</Node>
										</Node>
										<Node score="0" recordCount="78.0">
											<SimplePredicate field="double(ZIPCODE)" operator="lessOrEqual" value="1760.0"/>
											<ScoreDistribution value="0" recordCount="78.0"/>
											<ScoreDistribution value="1" recordCount="0.0"/>
										</Node>
										<Node score="1" recordCount="38.0">
											<SimplePredicate field="double(ZIPCODE)" operator="lessOrEqual" value="1762.5"/>
											<ScoreDistribution value="0" recordCount="0.0"/>
											<ScoreDistribution value="1" recordCount="38.0"/>
										</Node>
										<Node score="0" recordCount="52.0">
											<True/>
											<ScoreDistribution value="0" recordCount="52.0"/>
											<ScoreDistribution value="1" recordCount="0.0"/>
										</Node>
									</Node>
									<Node>
										<SimplePredicate field="double(ZIPCODE)" operator="lessOrEqual" value="1774.5"/>
										<Node score="1" recordCount="49.0">
											<SimplePredicate field="double(ZIPCODE)" operator="lessOrEqual" value="1772.5"/>
											<ScoreDistribution value="0" recordCount="0.0"/>
											<ScoreDistribution value="1" recordCount="49.0"/>
										</Node>
										<Node score="0" recordCount="9.0">
											<True/>
											<ScoreDistribution value="0" recordCount="9.0"/>
											<ScoreDistribution value="1" recordCount="0.0"/>
										</Node>
									</Node>
									<Node score="1" recordCount="96.0">
										<True/>
										<ScoreDistribution value="0" recordCount="0.0"/>
										<ScoreDistribution value="1" recordCount="96.0"/>
									</Node>
								</Node>
								<Node score="0" recordCount="370.0">
									<SimplePredicate field="double(ZIPCODE)" operator="lessOrEqual" value="1786.5"/>
									<ScoreDistribution value="0" recordCount="370.0"/>
									<ScoreDistribution value="1" recordCount="0.0"/>
								</Node>
								<Node score="1" recordCount="82.0">
									<SimplePredicate field="double(ZIPCODE)" operator="lessOrEqual" value="1789.5"/>
									<ScoreDistribution value="0" recordCount="0.0"/>
									<ScoreDistribution value="1" recordCount="82.0"/>
								</Node>
								<Node>
									<SimplePredicate field="double(ZIPCODE)" operator="lessOrEqual" value="1814.5"/>
									<Node score="0" recordCount="215.0">
										<SimplePredicate field="double(ZIPCODE)" operator="lessOrEqual" value="1811.5"/>
										<ScoreDistribution value="0" recordCount="215.0"/>
										<ScoreDistribution value="1" recordCount="0.0"/>
									</Node>
									<Node score="1" recordCount="42.0">
										<SimplePredicate field="double(ZIPCODE)" operator="lessOrEqual" value="1812.5"/>
										<ScoreDistribution value="0" recordCount="0.0"/>
										<ScoreDistribution value="1" recordCount="42.0"/>
									</Node>
									<Node score="0" recordCount="152.0">
										<True/>
										<ScoreDistribution value="0" recordCount="152.0"/>
										<ScoreDistribution value="1" recordCount="0.0"/>
									</Node>
								</Node>
								<Node>
									<SimplePredicate field="double(ZIPCODE)" operator="lessOrEqual" value="1824.5"/>
									<Node>
										<SimplePredicate field="double(ZIPCODE)" operator="lessOrEqual" value="1821.5"/>
										<Node score="1" recordCount="53.0">
											<SimplePredicate field="double(ZIPCODE)" operator="lessOrEqual" value="1815.5"/>
											<ScoreDistribution value="0" recordCount="0.0"/>
											<ScoreDistribution value="1" recordCount="53.0"/>
										</Node>
										<Node score="0" recordCount="78.0">
											<SimplePredicate field="double(ZIPCODE)" operator="lessOrEqual" value="1816.5"/>
											<ScoreDistribution value="0" recordCount="78.0"/>
											<ScoreDistribution value="1" recordCount="0.0"/>
										</Node>
										<Node score="1" recordCount="22.0">
											<SimplePredicate field="double(ZIPCODE)" operator="lessOrEqual" value="1819.0"/>
											<ScoreDistribution value="0" recordCount="0.0"/>
											<ScoreDistribution value="1" recordCount="22.0"/>
										</Node>
										<Node score="0" recordCount="14.0">
											<True/>
											<ScoreDistribution value="0" recordCount="14.0"/>
											<ScoreDistribution value="1" recordCount="0.0"/>
										</Node>
									</Node>
									<Node score="1" recordCount="133.0">
										<True/>
										<ScoreDistribution value="0" recordCount="0.0"/>
										<ScoreDistribution value="1" recordCount="133.0"/>
									</Node>
								</Node>
								<Node score="0" recordCount="167.0">
									<SimplePredicate field="double(ZIPCODE)" operator="lessOrEqual" value="1826.5"/>
									<ScoreDistribution value="0" recordCount="167.0"/>
									<ScoreDistribution value="1" recordCount="0.0"/>
								</Node>
								<Node score="1" recordCount="75.0">
									<SimplePredicate field="double(ZIPCODE)" operator="lessOrEqual" value="1828.0"/>
									<ScoreDistribution value="0" recordCount="0.0"/>
									<ScoreDistribution value="1" recordCount="75.0"/>
								</Node>
								<Node>
									<SimplePredicate field="double(ZIPCODE)" operator="lessOrEqual" value="1944.5"/>
									<Node>
										<SimplePredicate field="double(ZIPCODE)" operator="lessOrEqual" value="1942.0"/>
										<Node>
											<SimplePredicate field="double(ZIPCODE)" operator="lessOrEqual" value="1934.5"/>
											<Node>
												<SimplePredicate field="double(ZIPCODE)" operator="lessOrEqual" value="1901.5"/>
												<Node>
													<SimplePredicate field="double(ZIPCODE)" operator="lessOrEqual" value="1866.5"/>
													<Node>
														<SimplePredicate field="double(ZIPCODE)" operator="lessOrEqual" value="1861.5"/>
														<Node>
															<SimplePredicate field="double(ZIPCODE)" operator="lessOrEqual" value="1837.5"/>
															<Node score="0" recordCount="19.0">
																<SimplePredicate field="double(ZIPCODE)" operator="lessOrEqual" value="1832.5"/>
																<ScoreDistribution value="0" recordCount="19.0"/>
																<ScoreDistribution value="1" recordCount="0.0"/>
															</Node>
															<Node score="1" recordCount="25.0">
																<True/>
																<ScoreDistribution value="0" recordCount="0.0"/>
																<ScoreDistribution value="1" recordCount="25.0"/>
															</Node>
														</Node>
														<Node score="0" recordCount="93.0">
															<SimplePredicate field="double(ZIPCODE)" operator="lessOrEqual" value="1851.5"/>
															<ScoreDistribution value="0" recordCount="93.0"/>
															<ScoreDistribution value="1" recordCount="0.0"/>
														</Node>
														<Node score="1" recordCount="27.0">
															<SimplePredicate field="double(ZIPCODE)" operator="lessOrEqual" value="1856.5"/>
															<ScoreDistribution value="0" recordCount="0.0"/>
															<ScoreDistribution value="1" recordCount="27.0"/>
														</Node>
														<Node score="0" recordCount="67.0">
															<True/>
															<ScoreDistribution value="0" recordCount="67.0"/>
															<ScoreDistribution value="1" recordCount="0.0"/>
														</Node>
													</Node>
													<Node score="1" recordCount="41.0">
														<True/>
														<ScoreDistribution value="0" recordCount="0.0"/>
														<ScoreDistribution value="1" recordCount="41.0"/>
													</Node>
												</Node>
												<Node score="0" recordCount="117.0">
													<True/>
													<ScoreDistribution value="0" recordCount="117.0"/>
													<ScoreDistribution value="1" recordCount="0.0"/>
												</Node>
											</Node>
											<Node score="1" recordCount="108.0">
												<SimplePredicate field="double(ZIPCODE)" operator="lessOrEqual" value="1908.5"/>
												<ScoreDistribution value="0" recordCount="0.0"/>
												<ScoreDistribution value="1" recordCount="108.0"/>
											</Node>
											<Node score="0" recordCount="92.0">
												<SimplePredicate field="double(ZIPCODE)" operator="lessOrEqual" value="1926.0"/>
												<ScoreDistribution value="0" recordCount="92.0"/>
												<ScoreDistribution value="1" recordCount="0.0"/>
											</Node>
											<Node score="1" recordCount="62.0">
												<True/>
												<ScoreDistribution value="0" recordCount="0.0"/>
												<ScoreDistribution value="1" recordCount="62.0"/>
											</Node>
										</Node>
										<Node score="0" recordCount="101.0">
											<True/>
											<ScoreDistribution value="0" recordCount="101.0"/>
											<ScoreDistribution value="1" recordCount="0.0"/>
										</Node>
									</Node>
									<Node score="1" recordCount="58.0">
										<True/>
										<ScoreDistribution value="0" recordCount="0.0"/>
										<ScoreDistribution value="1" recordCount="58.0"/>
									</Node>
								</Node>
								<Node score="0" recordCount="98.0">
									<True/>
									<ScoreDistribution value="0" recordCount="98.0"/>
									<ScoreDistribution value="1" recordCount="0.0"/>
								</Node>
							</Node>
							<Node>
								<SimplePredicate field="double(ZIPCODE)" operator="lessOrEqual" value="1971.5"/>
								<Node>
									<SimplePredicate field="double(ZIPCODE)" operator="lessOrEqual" value="1950.0"/>
									<Node>
										<SimplePredicate field="double(ZIPCODE)" operator="lessOrEqual" value="1948.5"/>
										<Node>
											<SimplePredicate field="double(ZIPCODE)" operator="lessOrEqual" value="1947.5"/>
											<Node score="1" recordCount="25.0">
												<SimplePredicate field="double(ZIPCODE)" operator="lessOrEqual" value="1946.5"/>
												<ScoreDistribution value="0" recordCount="0.0"/>
												<ScoreDistribution value="1" recordCount="25.0"/>
											</Node>
											<Node score="0" recordCount="18.0">
												<True/>
												<ScoreDistribution value="0" recordCount="18.0"/>
												<ScoreDistribution value="1" recordCount="0.0"/>
											</Node>
										</Node>
										<Node score="1" recordCount="26.0">
											<True/>
											<ScoreDistribution value="0" recordCount="0.0"/>
											<ScoreDistribution value="1" recordCount="26.0"/>
										</Node>
									</Node>
									<Node score="0" recordCount="32.0">
										<True/>
										<ScoreDistribution value="0" recordCount="32.0"/>
										<ScoreDistribution value="1" recordCount="0.0"/>
									</Node>
								</Node>
								<Node>
									<SimplePredicate field="double(ZIPCODE)" operator="lessOrEqual" value="1962.5"/>
									<Node score="1" recordCount="58.0">
										<SimplePredicate field="double(day)" operator="lessOrEqual" value="25.5"/>
										<ScoreDistribution value="0" recordCount="0.0"/>
										<ScoreDistribution value="1" recordCount="58.0"/>
									</Node>
									<Node>
										<SimplePredicate field="double(month)" operator="lessOrEqual" value="4.5"/>
										<Node score="1" recordCount="4.0">
											<SimplePredicate field="double(month)" operator="lessOrEqual" value="3.5"/>
											<ScoreDistribution value="0" recordCount="0.0"/>
											<ScoreDistribution value="1" recordCount="4.0"/>
										</Node>
										<Node score="0" recordCount="1.0">
											<True/>
											<ScoreDistribution value="0" recordCount="1.0"/>
											<ScoreDistribution value="1" recordCount="0.0"/>
										</Node>
									</Node>
									<Node score="1" recordCount="13.0">
										<True/>
										<ScoreDistribution value="0" recordCount="0.0"/>
										<ScoreDistribution value="1" recordCount="13.0"/>
									</Node>
								</Node>
								<Node score="0" recordCount="9.0">
									<SimplePredicate field="double(ZIPCODE)" operator="lessOrEqual" value="1963.5"/>
									<ScoreDistribution value="0" recordCount="9.0"/>
									<ScoreDistribution value="1" recordCount="0.0"/>
								</Node>
								<Node>
									<SimplePredicate field="double(ZIPCODE)" operator="lessOrEqual" value="1970.0"/>
									<Node>
										<SimplePredicate field="double(ZIPCODE)" operator="lessOrEqual" value="1966.5"/>
										<Node score="1" recordCount="34.0">
											<SimplePredicate field="double(ZIPCODE)" operator="lessOrEqual" value="1964.5"/>
											<ScoreDistribution value="0" recordCount="0.0"/>
											<ScoreDistribution value="1" recordCount="34.0"/>
										</Node>
										<Node score="0" recordCount="7.0">
											<SimplePredicate field="double(ZIPCODE)" operator="lessOrEqual" value="1965.5"/>
											<ScoreDistribution value="0" recordCount="7.0"/>
											<ScoreDistribution value="1" recordCount="0.0"/>
										</Node>
										<Node score="1" recordCount="19.0">
											<True/>
											<ScoreDistribution value="0" recordCount="0.0"/>
											<ScoreDistribution value="1" recordCount="19.0"/>
										</Node>
									</Node>
									<Node score="0" recordCount="6.0">
										<True/>
										<ScoreDistribution value="0" recordCount="6.0"/>
										<ScoreDistribution value="1" recordCount="0.0"/>
									</Node>
								</Node>
								<Node score="1" recordCount="50.0">
									<True/>
									<ScoreDistribution value="0" recordCount="0.0"/>
									<ScoreDistribution value="1" recordCount="50.0"/>
								</Node>
							</Node>
							<Node score="0" recordCount="99.0">
								<SimplePredicate field="double(ZIPCODE)" operator="lessOrEqual" value="1972.5"/>
								<ScoreDistribution value="0" recordCount="99.0"/>
								<ScoreDistribution value="1" recordCount="0.0"/>
							</Node>
							<Node score="1" recordCount="73.0">
								<True/>
								<ScoreDistribution value="0" recordCount="0.0"/>
								<ScoreDistribution value="1" recordCount="73.0"/>
							</Node>
						</Node>
						<Node>
							<SimplePredicate field="double(ZIPCODE)" operator="lessOrEqual" value="2903.5"/>
							<Node>
								<SimplePredicate field="double(ZIPCODE)" operator="lessOrEqual" value="2756.0"/>
								<Node>
									<SimplePredicate field="double(ZIPCODE)" operator="lessOrEqual" value="2722.5"/>
									<Node>
										<SimplePredicate field="double(ZIPCODE)" operator="lessOrEqual" value="2039.0"/>
										<Node>
											<SimplePredicate field="double(ZIPCODE)" operator="lessOrEqual" value="2028.5"/>
											<Node>
												<SimplePredicate field="double(ZIPCODE)" operator="lessOrEqual" value="2025.5"/>
												<Node score="0" recordCount="386.0">
													<SimplePredicate field="double(ZIPCODE)" operator="lessOrEqual" value="2014.5"/>
													<ScoreDistribution value="0" recordCount="386.0"/>
													<ScoreDistribution value="1" recordCount="0.0"/>
												</Node>
												<Node score="1" recordCount="39.0">
													<SimplePredicate field="double(ZIPCODE)" operator="lessOrEqual" value="2018.0"/>
													<ScoreDistribution value="0" recordCount="0.0"/>
													<ScoreDistribution value="1" recordCount="39.0"/>
												</Node>
												<Node>
													<SimplePredicate field="double(ZIPCODE)" operator="lessOrEqual" value="2022.5"/>
													<Node score="0" recordCount="121.0">
														<SimplePredicate field="double(ZIPCODE)" operator="lessOrEqual" value="2021.5"/>
														<ScoreDistribution value="0" recordCount="121.0"/>
														<ScoreDistribution value="1" recordCount="0.0"/>
													</Node>
													<Node score="1" recordCount="48.0">
														<True/>
														<ScoreDistribution value="0" recordCount="0.0"/>
														<ScoreDistribution value="1" recordCount="48.0"/>
													</Node>
												</Node>
												<Node score="0" recordCount="252.0">
													<True/>
													<ScoreDistribution value="0" recordCount="252.0"/>
													<ScoreDistribution value="1" recordCount="0.0"/>
												</Node>
											</Node>
											<Node score="1" recordCount="30.0">
												<True/>
												<ScoreDistribution value="0" recordCount="0.0"/>
												<ScoreDistribution value="1" recordCount="30.0"/>
											</Node>
										</Node>
										<Node score="0" recordCount="545.0">
											<True/>
											<ScoreDistribution value="0" recordCount="545.0"/>
											<ScoreDistribution value="1" recordCount="0.0"/>
										</Node>
									</Node>
									<Node>
										<SimplePredicate field="double(ZIPCODE)" operator="lessOrEqual" value="2288.5"/>
										<Node>
											<SimplePredicate field="double(ZIPCODE)" operator="lessOrEqual" value="2285.5"/>
											<Node score="1" recordCount="49.0">
												<SimplePredicate field="double(ZIPCODE)" operator="lessOrEqual" value="2041.5"/>
												<ScoreDistribution value="0" recordCount="0.0"/>
												<ScoreDistribution value="1" recordCount="49.0"/>
											</Node>
											<Node>
												<SimplePredicate field="double(ZIPCODE)" operator="lessOrEqual" value="2218.0"/>
												<Node>
													<SimplePredicate field="double(ZIPCODE)" operator="lessOrEqual" value="2126.0"/>
													<Node>
														<SimplePredicate field="double(ZIPCODE)" operator="lessOrEqual" value="2104.5"/>
														<Node>
															<SimplePredicate field="double(ZIPCODE)" operator="lessOrEqual" value="2062.5"/>
															<Node score="0" recordCount="96.0">
																<SimplePredicate field="double(ZIPCODE)" operator="lessOrEqual" value="2056.0"/>
																<ScoreDistribution value="0" recordCount="96.0"/>
																<ScoreDistribution value="1" recordCount="0.0"/>
															</Node>
															<Node score="1" recordCount="73.0">
																<True/>
																<ScoreDistribution value="0" recordCount="0.0"/>
																<ScoreDistribution value="1" recordCount="73.0"/>
															</Node>
														</Node>
														<Node score="0" recordCount="151.0">
															<SimplePredicate field="double(ZIPCODE)" operator="lessOrEqual" value="2101.5"/>
															<ScoreDistribution value="0" recordCount="151.0"/>
															<ScoreDistribution value="1" recordCount="0.0"/>
														</Node>
														<Node score="1" recordCount="20.0">
															<SimplePredicate field="double(ZIPCODE)" operator="lessOrEqual" value="2102.5"/>
															<ScoreDistribution value="0" recordCount="0.0"/>
															<ScoreDistribution value="1" recordCount="20.0"/>
														</Node>
														<Node score="0" recordCount="24.0">
															<True/>
															<ScoreDistribution value="0" recordCount="24.0"/>
															<ScoreDistribution value="1" recordCount="0.0"/>
														</Node>
													</Node>
													<Node>
														<SimplePredicate field="double(ZIPCODE)" operator="lessOrEqual" value="2117.5"/>
														<Node>
															<SimplePredicate field="double(ZIPCODE)" operator="lessOrEqual" value="2112.5"/>
															<Node>
																<SimplePredicate field="double(ZIPCODE)" operator="lessOrEqual" value="2108.5"/>
																<Node score="1" recordCount="30.0">
																	<SimplePredicate field="double(ZIPCODE)" operator="lessOrEqual" value="2105.5"/>
																	<ScoreDistribution value="0" recordCount="0.0"/>
																	<ScoreDistribution value="1" recordCount="30.0"/>
																</Node>
																<Node score="0" recordCount="12.0">
																	<True/>
																	<ScoreDistribution value="0" recordCount="12.0"/>
																	<ScoreDistribution value="1" recordCount="0.0"/>
																</Node>
															</Node>
															<Node score="1" recordCount="39.0">
																<True/>
																<ScoreDistribution value="0" recordCount="0.0"/>
																<ScoreDistribution value="1" recordCount="39.0"/>
															</Node>
														</Node>
														<Node score="0" recordCount="13.0">
															<True/>
															<ScoreDistribution value="0" recordCount="13.0"/>
															<ScoreDistribution value="1" recordCount="0.0"/>
														</Node>
													</Node>
													<Node score="1" recordCount="33.0">
														<True/>
														<ScoreDistribution value="0" recordCount="0.0"/>
														<ScoreDistribution value="1" recordCount="33.0"/>
													</Node>
												</Node>
												<Node score="0" recordCount="352.0">
													<SimplePredicate field="double(ZIPCODE)" operator="lessOrEqual" value="2134.5"/>
													<ScoreDistribution value="0" recordCount="352.0"/>
													<ScoreDistribution value="1" recordCount="0.0"/>
												</Node>
												<Node>
													<SimplePredicate field="double(ZIPCODE)" operator="lessOrEqual" value="2141.5"/>
													<Node score="1" recordCount="50.0">
														<SimplePredicate field="double(ZIPCODE)" operator="lessOrEqual" value="2135.5"/>
														<ScoreDistribution value="0" recordCount="0.0"/>
														<ScoreDistribution value="1" recordCount="50.0"/>
													</Node>
													<Node score="0" recordCount="3.0">
														<SimplePredicate field="double(ZIPCODE)" operator="lessOrEqual" value="2138.5"/>
														<ScoreDistribution value="0" recordCount="3.0"/>
														<ScoreDistribution value="1" recordCount="0.0"/>
													</Node>
													<Node score="1" recordCount="30.0">
														<True/>
														<ScoreDistribution value="0" recordCount="0.0"/>
														<ScoreDistribution value="1" recordCount="30.0"/>
													</Node>
												</Node>
												<Node>
													<SimplePredicate field="double(ZIPCODE)" operator="lessOrEqual" value="2196.0"/>
													<Node>
														<SimplePredicate field="double(ZIPCODE)" operator="lessOrEqual" value="2152.5"/>
														<Node score="0" recordCount="74.0">
															<SimplePredicate field="double(ZIPCODE)" operator="lessOrEqual" value="2151.5"/>
															<ScoreDistribution value="0" recordCount="74.0"/>
															<ScoreDistribution value="1" recordCount="0.0"/>
														</Node>
														<Node score="1" recordCount="46.0">
															<True/>
															<ScoreDistribution value="0" recordCount="0.0"/>
															<ScoreDistribution value="1" recordCount="46.0"/>
														</Node>
													</Node>
													<Node>
														<SimplePredicate field="double(ZIPCODE)" operator="lessOrEqual" value="2162.5"/>
														<Node score="0" recordCount="157.0">
															<SimplePredicate field="double(ZIPCODE)" operator="lessOrEqual" value="2161.5"/>
															<ScoreDistribution value="0" recordCount="157.0"/>
															<ScoreDistribution value="1" recordCount="0.0"/>
														</Node>
														<Node score="1" recordCount="17.0">
															<True/>
															<ScoreDistribution value="0" recordCount="0.0"/>
															<ScoreDistribution value="1" recordCount="17.0"/>
														</Node>
													</Node>
													<Node score="0" recordCount="275.0">
														<True/>
														<ScoreDistribution value="0" recordCount="275.0"/>
														<ScoreDistribution value="1" recordCount="0.0"/>
													</Node>
												</Node>
												<Node score="1" recordCount="90.0">
													<SimplePredicate field="double(ZIPCODE)" operator="lessOrEqual" value="2203.5"/>
													<ScoreDistribution value="0" recordCount="0.0"/>
													<ScoreDistribution value="1" recordCount="90.0"/>
												</Node>
												<Node score="0" recordCount="193.0">
													<True/>
													<ScoreDistribution value="0" recordCount="193.0"/>
													<ScoreDistribution value="1" recordCount="0.0"/>
												</Node>
											</Node>
											<Node score="1" recordCount="188.0">
												<SimplePredicate field="double(ZIPCODE)" operator="lessOrEqual" value="2224.5"/>
												<ScoreDistribution value="0" recordCount="0.0"/>
												<ScoreDistribution value="1" recordCount="188.0"/>
											</Node>
											<Node score="0" recordCount="190.0">
												<SimplePredicate field="double(ZIPCODE)" operator="lessOrEqual" value="2233.0"/>
												<ScoreDistribution value="0" recordCount="190.0"/>
												<ScoreDistribution value="1" recordCount="0.0"/>
											</Node>
											<Node>
												<SimplePredicate field="double(ZIPCODE)" operator="lessOrEqual" value="2264.5"/>
												<Node>
													<SimplePredicate field="double(ZIPCODE)" operator="lessOrEqual" value="2251.5"/>
													<Node score="1" recordCount="84.0">
														<SimplePredicate field="double(ZIPCODE)" operator="lessOrEqual" value="2241.5"/>
														<ScoreDistribution value="0" recordCount="0.0"/>
														<ScoreDistribution value="1" recordCount="84.0"/>
													</Node>
													<Node score="0" recordCount="93.0">
														<SimplePredicate field="double(ZIPCODE)" operator="lessOrEqual" value="2242.5"/>
														<ScoreDistribution value="0" recordCount="93.0"/>
														<ScoreDistribution value="1" recordCount="0.0"/>
													</Node>
													<Node score="1" recordCount="21.0">
														<SimplePredicate field="double(ZIPCODE)" operator="lessOrEqual" value="2243.5"/>
														<ScoreDistribution value="0" recordCount="0.0"/>
														<ScoreDistribution value="1" recordCount="21.0"/>
													</Node>
													<Node score="0" recordCount="84.0">
														<True/>
														<ScoreDistribution value="0" recordCount="84.0"/>
														<ScoreDistribution value="1" recordCount="0.0"/>
													</Node>
												</Node>
												<Node>
													<SimplePredicate field="double(month)" operator="lessOrEqual" value="1.5"/>
													<Node>
														<SimplePredicate field="double(day)" operator="lessOrEqual" value="7.5"/>
														<Node score="1" recordCount="2.0">
															<SimplePredicate field="double(day)" operator="lessOrEqual" value="4.5"/>
															<ScoreDistribution value="0" recordCount="0.0"/>
															<ScoreDistribution value="1" recordCount="2.0"/>
														</Node>
														<Node score="0" recordCount="1.0">
															<SimplePredicate field="double(ZIPCODE)" operator="lessOrEqual" value="2259.0"/>
															<ScoreDistribution value="0" recordCount="1.0"/>
															<ScoreDistribution value="1" recordCount="0.0"/>
														</Node>
														<Node score="1" recordCount="1.0">
															<True/>
															<ScoreDistribution value="0" recordCount="0.0"/>
															<ScoreDistribution value="1" recordCount="1.0"/>
														</Node>
													</Node>
													<Node score="1" recordCount="20.0">
														<True/>
														<ScoreDistribution value="0" recordCount="0.0"/>
														<ScoreDistribution value="1" recordCount="20.0"/>
													</Node>
												</Node>
												<Node score="1" recordCount="157.0">
													<True/>
													<ScoreDistribution value="0" recordCount="0.0"/>
													<ScoreDistribution value="1" recordCount="157.0"/>
												</Node>
											</Node>
											<Node>
												<SimplePredicate field="double(ZIPCODE)" operator="lessOrEqual" value="2272.5"/>
												<Node>
													<SimplePredicate field="double(ZIPCODE)" operator="lessOrEqual" value="2271.5"/>
													<Node>
														<SimplePredicate field="double(ZIPCODE)" operator="lessOrEqual" value="2266.5"/>
														<Node score="0" recordCount="70.0">
															<SimplePredicate field="double(ZIPCODE)" operator="lessOrEqual" value="2265.5"/>
															<ScoreDistribution value="0" recordCount="70.0"/>
															<ScoreDistribution value="1" recordCount="0.0"/>
														</Node>
														<Node score="1" recordCount="39.0">
															<True/>
															<ScoreDistribution value="0" recordCount="0.0"/>
															<ScoreDistribution value="1" recordCount="39.0"/>
														</Node>
													</Node>
													<Node score="0" recordCount="72.0">
														<True/>
														<ScoreDistribution value="0" recordCount="72.0"/>
														<ScoreDistribution value="1" recordCount="0.0"/>
													</Node>
												</Node>
												<Node score="1" recordCount="49.0">
													<True/>
													<ScoreDistribution value="0" recordCount="0.0"/>
													<ScoreDistribution value="1" recordCount="49.0"/>
												</Node>
											</Node>
											<Node score="0" recordCount="268.0">
												<SimplePredicate field="double(ZIPCODE)" operator="lessOrEqual" value="2282.5"/>
												<ScoreDistribution value="0" recordCount="268.0"/>
												<ScoreDistribution value="1" recordCount="0.0"/>
											</Node>
											<Node score="1" recordCount="70.0">
												<SimplePredicate field="double(ZIPCODE)" operator="lessOrEqual" value="2284.5"/>
												<ScoreDistribution value="0" recordCount="0.0"/>
												<ScoreDistribution value="1" recordCount="70.0"/>
											</Node>
											<Node score="0" recordCount="100.0">
												<True/>
												<ScoreDistribution value="0" recordCount="100.0"/>
												<ScoreDistribution value="1" recordCount="0.0"/>
											</Node>
										</Node>
										<Node score="1" recordCount="87.0">
											<True/>
											<ScoreDistribution value="0" recordCount="0.0"/>
											<ScoreDistribution value="1" recordCount="87.0"/>
										</Node>
									</Node>
									<Node score="0" recordCount="795.0">
										<SimplePredicate field="double(ZIPCODE)" operator="lessOrEqual" value="2327.5"/>
										<ScoreDistribution value="0" recordCount="795.0"/>
										<ScoreDistribution value="1" recordCount="0.0"/>
									</Node>
									<Node score="1" recordCount="60.0">
										<SimplePredicate field="double(ZIPCODE)" operator="lessOrEqual" value="2331.5"/>
										<ScoreDistribution value="0" recordCount="0.0"/>
										<ScoreDistribution value="1" recordCount="60.0"/>
									</Node>
									<Node>
										<SimplePredicate field="double(ZIPCODE)" operator="lessOrEqual" value="2629.5"/>
										<Node>
											<SimplePredicate field="double(ZIPCODE)" operator="lessOrEqual" value="2497.5"/>
											<Node>
												<SimplePredicate field="double(ZIPCODE)" operator="lessOrEqual" value="2491.5"/>
												<Node score="0" recordCount="191.0">
													<SimplePredicate field="double(ZIPCODE)" operator="lessOrEqual" value="2342.5"/>
													<ScoreDistribution value="0" recordCount="191.0"/>
													<ScoreDistribution value="1" recordCount="0.0"/>
												</Node>
												<Node score="1" recordCount="68.0">
													<SimplePredicate field="double(ZIPCODE)" operator="lessOrEqual" value="2347.0"/>
													<ScoreDistribution value="0" recordCount="0.0"/>
													<ScoreDistribution value="1" recordCount="68.0"/>
												</Node>
												<Node score="0" recordCount="192.0">
													<SimplePredicate field="double(ZIPCODE)" operator="lessOrEqual" value="2358.0"/>
													<ScoreDistribution value="0" recordCount="192.0"/>
													<ScoreDistribution value="1" recordCount="0.0"/>
												</Node>
												<Node score="1" recordCount="45.0">
													<SimplePredicate field="double(ZIPCODE)" operator="lessOrEqual" value="2366.0"/>
													<ScoreDistribution value="0" recordCount="0.0"/>
													<ScoreDistribution value="1" recordCount="45.0"/>
												</Node>
												<Node>
													<SimplePredicate field="double(ZIPCODE)" operator="lessOrEqual" value="2406.5"/>
													<Node>
														<SimplePredicate field="double(ZIPCODE)" operator="lessOrEqual" value="2392.5"/>
														<Node score="0" recordCount="112.0">
															<SimplePredicate field="double(ZIPCODE)" operator="lessOrEqual" value="2379.0"/>
															<ScoreDistribution value="0" recordCount="112.0"/>
															<ScoreDistribution value="1" recordCount="0.0"/>
														</Node>
														<Node score="1" recordCount="27.0">
															<SimplePredicate field="double(ZIPCODE)" operator="lessOrEqual" value="2381.5"/>
															<ScoreDistribution value="0" recordCount="0.0"/>
															<ScoreDistribution value="1" recordCount="27.0"/>
														</Node>
														<Node score="0" recordCount="82.0">
															<True/>
															<ScoreDistribution value="0" recordCount="82.0"/>
															<ScoreDistribution value="1" recordCount="0.0"/>
														</Node>
													</Node>
													<Node score="1" recordCount="93.0">
														<SimplePredicate field="double(ZIPCODE)" operator="lessOrEqual" value="2401.5"/>
														<ScoreDistribution value="0" recordCount="0.0"/>
														<ScoreDistribution value="1" recordCount="93.0"/>
													</Node>
													<Node>
														<SimplePredicate field="double(ZIPCODE)" operator="lessOrEqual" value="2405.5"/>
														<Node score="0" recordCount="103.0">
															<SimplePredicate field="double(ZIPCODE)" operator="lessOrEqual" value="2402.5"/>
															<ScoreDistribution value="0" recordCount="103.0"/>
															<ScoreDistribution value="1" recordCount="0.0"/>
														</Node>
														<Node score="1" recordCount="43.0">
															<SimplePredicate field="double(ZIPCODE)" operator="lessOrEqual" value="2404.5"/>
															<ScoreDistribution value="0" recordCount="0.0"/>
															<ScoreDistribution value="1" recordCount="43.0"/>
														</Node>
														<Node score="0" recordCount="77.0">
															<True/>
															<ScoreDistribution value="0" recordCount="77.0"/>
															<ScoreDistribution value="1" recordCount="0.0"/>
														</Node>
													</Node>
													<Node score="1" recordCount="34.0">
														<True/>
														<ScoreDistribution value="0" recordCount="0.0"/>
														<ScoreDistribution value="1" recordCount="34.0"/>
													</Node>
												</Node>
												<Node score="0" recordCount="278.0">
													<SimplePredicate field="double(ZIPCODE)" operator="lessOrEqual" value="2438.0"/>
													<ScoreDistribution value="0" recordCount="278.0"/>
													<ScoreDistribution value="1" recordCount="0.0"/>
												</Node>
												<Node>
													<SimplePredicate field="double(ZIPCODE)" operator="lessOrEqual" value="2456.0"/>
													<Node>
														<SimplePredicate field="double(day)" operator="lessOrEqual" value="24.5"/>
														<Node>
															<SimplePredicate field="double(day)" operator="lessOrEqual" value="5.5"/>
															<Node score="1" recordCount="6.0">
																<SimplePredicate field="double(month)" operator="lessOrEqual" value="10.0"/>
																<ScoreDistribution value="0" recordCount="0.0"/>
																<ScoreDistribution value="1" recordCount="6.0"/>
															</Node>
															<Node score="1" recordCount="1.0">
																<SimplePredicate field="double(day)" operator="lessOrEqual" value="3.5"/>
																<ScoreDistribution value="0" recordCount="0.0"/>
																<ScoreDistribution value="1" recordCount="1.0"/>
															</Node>
															<Node score="0" recordCount="1.0">
																<True/>
																<ScoreDistribution value="0" recordCount="1.0"/>
																<ScoreDistribution value="1" recordCount="0.0"/>
															</Node>
														</Node>
														<Node score="1" recordCount="43.0">
															<True/>
															<ScoreDistribution value="0" recordCount="0.0"/>
															<ScoreDistribution value="1" recordCount="43.0"/>
														</Node>
													</Node>
													<Node score="1" recordCount="8.0">
														<SimplePredicate field="double(ZIPCODE)" operator="lessOrEqual" value="2443.0"/>
														<ScoreDistribution value="0" recordCount="0.0"/>
														<ScoreDistribution value="1" recordCount="8.0"/>
													</Node>
													<Node score="0" recordCount="4.0">
														<SimplePredicate field="double(ZIPCODE)" operator="lessOrEqual" value="2448.0"/>
														<ScoreDistribution value="0" recordCount="4.0"/>
														<ScoreDistribution value="1" recordCount="0.0"/>
													</Node>
													<Node score="1" recordCount="5.0">
														<True/>
														<ScoreDistribution value="0" recordCount="0.0"/>
														<ScoreDistribution value="1" recordCount="5.0"/>
													</Node>
												</Node>
												<Node score="0" recordCount="125.0">
													<True/>
													<ScoreDistribution value="0" recordCount="125.0"/>
													<ScoreDistribution value="1" recordCount="0.0"/>
												</Node>
											</Node>
											<Node>
												<SimplePredicate field="double(ZIPCODE)" operator="lessOrEqual" value="2495.5"/>
												<Node score="1" recordCount="63.0">
													<SimplePredicate field="double(ZIPCODE)" operator="lessOrEqual" value="2492.5"/>
													<ScoreDistribution value="0" recordCount="0.0"/>
													<ScoreDistribution value="1" recordCount="63.0"/>
												</Node>
												<Node score="0" recordCount="5.0">
													<True/>
													<ScoreDistribution value="0" recordCount="5.0"/>
													<ScoreDistribution value="1" recordCount="0.0"/>
												</Node>
											</Node>
											<Node score="1" recordCount="89.0">
												<True/>
												<ScoreDistribution value="0" recordCount="0.0"/>
												<ScoreDistribution value="1" recordCount="89.0"/>
											</Node>
										</Node>
										<Node score="0" recordCount="804.0">
											<SimplePredicate field="double(ZIPCODE)" operator="lessOrEqual" value="2521.5"/>
											<ScoreDistribution value="0" recordCount="804.0"/>
											<ScoreDistribution value="1" recordCount="0.0"/>
										</Node>
										<Node score="1" recordCount="140.0">
											<SimplePredicate field="double(ZIPCODE)" operator="lessOrEqual" value="2524.5"/>
											<ScoreDistribution value="0" recordCount="0.0"/>
											<ScoreDistribution value="1" recordCount="140.0"/>
										</Node>
										<Node score="0" recordCount="374.0">
											<SimplePredicate field="double(ZIPCODE)" operator="lessOrEqual" value="2532.5"/>
											<ScoreDistribution value="0" recordCount="374.0"/>
											<ScoreDistribution value="1" recordCount="0.0"/>
										</Node>
										<Node score="1" recordCount="135.0">
											<SimplePredicate field="double(ZIPCODE)" operator="lessOrEqual" value="2541.5"/>
											<ScoreDistribution value="0" recordCount="0.0"/>
											<ScoreDistribution value="1" recordCount="135.0"/>
										</Node>
										<Node>
											<SimplePredicate field="double(ZIPCODE)" operator="lessOrEqual" value="2552.5"/>
											<Node>
												<SimplePredicate field="double(ZIPCODE)" operator="lessOrEqual" value="2543.5"/>
												<Node score="0" recordCount="74.0">
													<SimplePredicate field="double(ZIPCODE)" operator="lessOrEqual" value="2542.5"/>
													<ScoreDistribution value="0" recordCount="74.0"/>
													<ScoreDistribution value="1" recordCount="0.0"/>
												</Node>
												<Node score="1" recordCount="23.0">
													<True/>
													<ScoreDistribution value="0" recordCount="0.0"/>
													<ScoreDistribution value="1" recordCount="23.0"/>
												</Node>
											</Node>
											<Node score="0" recordCount="507.0">
												<True/>
												<ScoreDistribution value="0" recordCount="507.0"/>
												<ScoreDistribution value="1" recordCount="0.0"/>
											</Node>
										</Node>
										<Node score="1" recordCount="64.0">
											<SimplePredicate field="double(ZIPCODE)" operator="lessOrEqual" value="2553.5"/>
											<ScoreDistribution value="0" recordCount="0.0"/>
											<ScoreDistribution value="1" recordCount="64.0"/>
										</Node>
										<Node>
											<SimplePredicate field="double(ZIPCODE)" operator="lessOrEqual" value="2565.5"/>
											<Node>
												<SimplePredicate field="double(ZIPCODE)" operator="lessOrEqual" value="2561.5"/>
												<Node score="0" recordCount="66.0">
													<SimplePredicate field="double(ZIPCODE)" operator="lessOrEqual" value="2558.0"/>
													<ScoreDistribution value="0" recordCount="66.0"/>
													<ScoreDistribution value="1" recordCount="0.0"/>
												</Node>
												<Node score="1" recordCount="24.0">
													<True/>
													<ScoreDistribution value="0" recordCount="0.0"/>
													<ScoreDistribution value="1" recordCount="24.0"/>
												</Node>
											</Node>
											<Node score="0" recordCount="409.0">
												<True/>
												<ScoreDistribution value="0" recordCount="409.0"/>
												<ScoreDistribution value="1" recordCount="0.0"/>
											</Node>
										</Node>
										<Node>
											<SimplePredicate field="double(ZIPCODE)" operator="lessOrEqual" value="2577.5"/>
											<Node>
												<SimplePredicate field="double(ZIPCODE)" operator="lessOrEqual" value="2571.5"/>
												<Node score="1" recordCount="47.0">
													<SimplePredicate field="double(ZIPCODE)" operator="lessOrEqual" value="2568.5"/>
													<ScoreDistribution value="0" recordCount="0.0"/>
													<ScoreDistribution value="1" recordCount="47.0"/>
												</Node>
												<Node score="0" recordCount="94.0">
													<True/>
													<ScoreDistribution value="0" recordCount="94.0"/>
													<ScoreDistribution value="1" recordCount="0.0"/>
												</Node>
											</Node>
											<Node score="1" recordCount="139.0">
												<True/>
												<ScoreDistribution value="0" recordCount="0.0"/>
												<ScoreDistribution value="1" recordCount="139.0"/>
											</Node>
										</Node>
										<Node score="0" recordCount="462.0">
											<SimplePredicate field="double(ZIPCODE)" operator="lessOrEqual" value="2586.5"/>
											<ScoreDistribution value="0" recordCount="462.0"/>
											<ScoreDistribution value="1" recordCount="0.0"/>
										</Node>
										<Node score="1" recordCount="108.0">
											<SimplePredicate field="double(ZIPCODE)" operator="lessOrEqual" value="2591.5"/>
											<ScoreDistribution value="0" recordCount="0.0"/>
											<ScoreDistribution value="1" recordCount="108.0"/>
										</Node>
										<Node>
											<SimplePredicate field="double(ZIPCODE)" operator="lessOrEqual" value="2623.5"/>
											<Node>
												<SimplePredicate field="double(ZIPCODE)" operator="lessOrEqual" value="2618.0"/>
												<Node score="0" recordCount="220.0">
													<SimplePredicate field="double(ZIPCODE)" operator="lessOrEqual" value="2595.5"/>
													<ScoreDistribution value="0" recordCount="220.0"/>
													<ScoreDistribution value="1" recordCount="0.0"/>
												</Node>
												<Node score="1" recordCount="47.0">
													<SimplePredicate field="double(ZIPCODE)" operator="lessOrEqual" value="2596.5"/>
													<ScoreDistribution value="0" recordCount="0.0"/>
													<ScoreDistribution value="1" recordCount="47.0"/>
												</Node>
												<Node score="0" recordCount="176.0">
													<SimplePredicate field="double(ZIPCODE)" operator="lessOrEqual" value="2611.5"/>
													<ScoreDistribution value="0" recordCount="176.0"/>
													<ScoreDistribution value="1" recordCount="0.0"/>
												</Node>
												<Node score="1" recordCount="48.0">
													<SimplePredicate field="double(ZIPCODE)" operator="lessOrEqual" value="2612.5"/>
													<ScoreDistribution value="0" recordCount="0.0"/>
													<ScoreDistribution value="1" recordCount="48.0"/>
												</Node>
												<Node score="0" recordCount="172.0">
													<True/>
													<ScoreDistribution value="0" recordCount="172.0"/>
													<ScoreDistribution value="1" recordCount="0.0"/>
												</Node>
											</Node>
											<Node score="1" recordCount="54.0">
												<True/>
												<ScoreDistribution value="0" recordCount="0.0"/>
												<ScoreDistribution value="1" recordCount="54.0"/>
											</Node>
										</Node>
										<Node score="0" recordCount="277.0">
											<True/>
											<ScoreDistribution value="0" recordCount="277.0"/>
											<ScoreDistribution value="1" recordCount="0.0"/>
										</Node>
									</Node>
									<Node>
										<SimplePredicate field="double(ZIPCODE)" operator="lessOrEqual" value="2638.5"/>
										<Node>
											<SimplePredicate field="double(day)" operator="lessOrEqual" value="27.5"/>
											<Node>
												<SimplePredicate field="double(month)" operator="lessOrEqual" value="1.5"/>
												<Node>
													<SimplePredicate field="double(day)" operator="lessOrEqual" value="10.5"/>
													<Node score="1" recordCount="5.0">
														<SimplePredicate field="double(day)" operator="lessOrEqual" value="9.0"/>
														<ScoreDistribution value="0" recordCount="0.0"/>
														<ScoreDistribution value="1" recordCount="5.0"/>
													</Node>
													<Node score="0" recordCount="1.0">
														<SimplePredicate field="double(ZIPCODE)" operator="lessOrEqual" value="2633.5"/>
														<ScoreDistribution value="0" recordCount="1.0"/>
														<ScoreDistribution value="1" recordCount="0.0"/>
													</Node>
													<Node score="1" recordCount="1.0">
														<True/>
														<ScoreDistribution value="0" recordCount="0.0"/>
														<ScoreDistribution value="1" recordCount="1.0"/>
													</Node>
												</Node>
												<Node score="1" recordCount="14.0">
													<True/>
													<ScoreDistribution value="0" recordCount="0.0"/>
													<ScoreDistribution value="1" recordCount="14.0"/>
												</Node>
											</Node>
											<Node score="1" recordCount="101.0">
												<True/>
												<ScoreDistribution value="0" recordCount="0.0"/>
												<ScoreDistribution value="1" recordCount="101.0"/>
											</Node>
										</Node>
										<Node>
											<SimplePredicate field="double(day)" operator="lessOrEqual" value="28.5"/>
											<Node score="1" recordCount="2.0">
												<SimplePredicate field="double(month)" operator="lessOrEqual" value="5.0"/>
												<ScoreDistribution value="0" recordCount="0.0"/>
												<ScoreDistribution value="1" recordCount="2.0"/>
											</Node>
											<Node score="0" recordCount="1.0">
												<True/>
												<ScoreDistribution value="0" recordCount="1.0"/>
												<ScoreDistribution value="1" recordCount="0.0"/>
											</Node>
										</Node>
										<Node score="1" recordCount="8.0">
											<True/>
											<ScoreDistribution value="0" recordCount="0.0"/>
											<ScoreDistribution value="1" recordCount="8.0"/>
										</Node>
									</Node>
									<Node>
										<SimplePredicate field="double(ZIPCODE)" operator="lessOrEqual" value="2717.5"/>
										<Node>
											<SimplePredicate field="double(ZIPCODE)" operator="lessOrEqual" value="2715.5"/>
											<Node>
												<SimplePredicate field="double(ZIPCODE)" operator="lessOrEqual" value="2671.5"/>
												<Node>
													<SimplePredicate field="double(ZIPCODE)" operator="lessOrEqual" value="2656.5"/>
													<Node score="0" recordCount="90.0">
														<SimplePredicate field="double(ZIPCODE)" operator="lessOrEqual" value="2641.5"/>
														<ScoreDistribution value="0" recordCount="90.0"/>
														<ScoreDistribution value="1" recordCount="0.0"/>
													</Node>
													<Node>
														<SimplePredicate field="double(ZIPCODE)" operator="lessOrEqual" value="2648.0"/>
														<Node>
															<SimplePredicate field="double(ZIPCODE)" operator="lessOrEqual" value="2644.0"/>
															<Node score="1" recordCount="28.0">
																<SimplePredicate field="double(ZIPCODE)" operator="lessOrEqual" value="2642.5"/>
																<ScoreDistribution value="0" recordCount="0.0"/>
																<ScoreDistribution value="1" recordCount="28.0"/>
															</Node>
															<Node score="0" recordCount="9.0">
																<True/>
																<ScoreDistribution value="0" recordCount="9.0"/>
																<ScoreDistribution value="1" recordCount="0.0"/>
															</Node>
														</Node>
														<Node score="1" recordCount="60.0">
															<True/>
															<ScoreDistribution value="0" recordCount="0.0"/>
															<ScoreDistribution value="1" recordCount="60.0"/>
														</Node>
													</Node>
													<Node score="0" recordCount="113.0">
														<SimplePredicate field="double(ZIPCODE)" operator="lessOrEqual" value="2651.5"/>
														<ScoreDistribution value="0" recordCount="113.0"/>
														<ScoreDistribution value="1" recordCount="0.0"/>
													</Node>
													<Node score="1" recordCount="35.0">
														<True/>
														<ScoreDistribution value="0" recordCount="0.0"/>
														<ScoreDistribution value="1" recordCount="35.0"/>
													</Node>
												</Node>
												<Node score="0" recordCount="272.0">
													<True/>
													<ScoreDistribution value="0" recordCount="272.0"/>
													<ScoreDistribution value="1" recordCount="0.0"/>
												</Node>
											</Node>
											<Node score="1" recordCount="64.0">
												<SimplePredicate field="double(ZIPCODE)" operator="lessOrEqual" value="2675.5"/>
												<ScoreDistribution value="0" recordCount="0.0"/>
												<ScoreDistribution value="1" recordCount="64.0"/>
											</Node>
											<Node>
												<SimplePredicate field="double(ZIPCODE)" operator="lessOrEqual" value="2683.0"/>
												<Node score="0" recordCount="74.0">
													<SimplePredicate field="double(ZIPCODE)" operator="lessOrEqual" value="2679.5"/>
													<ScoreDistribution value="0" recordCount="74.0"/>
													<ScoreDistribution value="1" recordCount="0.0"/>
												</Node>
												<Node score="1" recordCount="73.0">
													<True/>
													<ScoreDistribution value="0" recordCount="0.0"/>
													<ScoreDistribution value="1" recordCount="73.0"/>
												</Node>
											</Node>
											<Node score="0" recordCount="163.0">
												<SimplePredicate field="double(ZIPCODE)" operator="lessOrEqual" value="2702.5"/>
												<ScoreDistribution value="0" recordCount="163.0"/>
												<ScoreDistribution value="1" recordCount="0.0"/>
											</Node>
											<Node score="1" recordCount="45.0">
												<SimplePredicate field="double(ZIPCODE)" operator="lessOrEqual" value="2711.5"/>
												<ScoreDistribution value="0" recordCount="0.0"/>
												<ScoreDistribution value="1" recordCount="45.0"/>
											</Node>
											<Node>
												<SimplePredicate field="double(ZIPCODE)" operator="lessOrEqual" value="2714.0"/>
												<Node score="0" recordCount="72.0">
													<SimplePredicate field="double(ZIPCODE)" operator="lessOrEqual" value="2712.5"/>
													<ScoreDistribution value="0" recordCount="72.0"/>
													<ScoreDistribution value="1" recordCount="0.0"/>
												</Node>
												<Node score="1" recordCount="44.0">
													<True/>
													<ScoreDistribution value="0" recordCount="0.0"/>
													<ScoreDistribution value="1" recordCount="44.0"/>
												</Node>
											</Node>
											<Node score="0" recordCount="77.0">
												<True/>
												<ScoreDistribution value="0" recordCount="77.0"/>
												<ScoreDistribution value="1" recordCount="0.0"/>
											</Node>
										</Node>
										<Node score="1" recordCount="105.0">
											<True/>
											<ScoreDistribution value="0" recordCount="0.0"/>
											<ScoreDistribution value="1" recordCount="105.0"/>
										</Node>
									</Node>
									<Node score="0" recordCount="246.0">
										<True/>
										<ScoreDistribution value="0" recordCount="246.0"/>
										<ScoreDistribution value="1" recordCount="0.0"/>
									</Node>
								</Node>
								<Node>
									<SimplePredicate field="double(ZIPCODE)" operator="lessOrEqual" value="2730.0"/>
									<Node score="1" recordCount="162.0">
										<SimplePredicate field="double(ZIPCODE)" operator="lessOrEqual" value="2726.5"/>
										<ScoreDistribution value="0" recordCount="0.0"/>
										<ScoreDistribution value="1" recordCount="162.0"/>
									</Node>
									<Node score="0" recordCount="21.0">
										<SimplePredicate field="double(ZIPCODE)" operator="lessOrEqual" value="2727.5"/>
										<ScoreDistribution value="0" recordCount="21.0"/>
										<ScoreDistribution value="1" recordCount="0.0"/>
									</Node>
									<Node score="1" recordCount="50.0">
										<True/>
										<ScoreDistribution value="0" recordCount="0.0"/>
										<ScoreDistribution value="1" recordCount="50.0"/>
									</Node>
								</Node>
								<Node score="0" recordCount="183.0">
									<SimplePredicate field="double(ZIPCODE)" operator="lessOrEqual" value="2742.5"/>
									<ScoreDistribution value="0" recordCount="183.0"/>
									<ScoreDistribution value="1" recordCount="0.0"/>
								</Node>
								<Node score="1" recordCount="78.0">
									<True/>
									<ScoreDistribution value="0" recordCount="0.0"/>
									<ScoreDistribution value="1" recordCount="78.0"/>
								</Node>
							</Node>
							<Node score="0" recordCount="910.0">
								<SimplePredicate field="double(ZIPCODE)" operator="lessOrEqual" value="2828.0"/>
								<ScoreDistribution value="0" recordCount="910.0"/>
								<ScoreDistribution value="1" recordCount="0.0"/>
							</Node>
							<Node score="1" recordCount="18.0">
								<SimplePredicate field="double(ZIPCODE)" operator="lessOrEqual" value="2836.0"/>
								<ScoreDistribution value="0" recordCount="0.0"/>
								<ScoreDistribution value="1" recordCount="18.0"/>
							</Node>
							<Node>
								<SimplePredicate field="double(ZIPCODE)" operator="lessOrEqual" value="2853.0"/>
								<Node score="0" recordCount="107.0">
									<SimplePredicate field="double(ZIPCODE)" operator="lessOrEqual" value="2846.0"/>
									<ScoreDistribution value="0" recordCount="107.0"/>
									<ScoreDistribution value="1" recordCount="0.0"/>
								</Node>
								<Node score="1" recordCount="40.0">
									<True/>
									<ScoreDistribution value="0" recordCount="0.0"/>
									<ScoreDistribution value="1" recordCount="40.0"/>
								</Node>
							</Node>
							<Node score="0" recordCount="457.0">
								<True/>
								<ScoreDistribution value="0" recordCount="457.0"/>
								<ScoreDistribution value="1" recordCount="0.0"/>
							</Node>
						</Node>
						<Node score="1" recordCount="171.0">
							<SimplePredicate field="double(ZIPCODE)" operator="lessOrEqual" value="2906.5"/>
							<ScoreDistribution value="0" recordCount="0.0"/>
							<ScoreDistribution value="1" recordCount="171.0"/>
						</Node>
						<Node>
							<SimplePredicate field="double(ZIPCODE)" operator="lessOrEqual" value="2985.5"/>
							<Node>
								<SimplePredicate field="double(ZIPCODE)" operator="lessOrEqual" value="2928.5"/>
								<Node>
									<SimplePredicate field="double(ZIPCODE)" operator="lessOrEqual" value="2922.5"/>
									<Node>
										<SimplePredicate field="double(ZIPCODE)" operator="lessOrEqual" value="2921.5"/>
										<Node score="0" recordCount="120.0">
											<SimplePredicate field="double(ZIPCODE)" operator="lessOrEqual" value="2907.5"/>
											<ScoreDistribution value="0" recordCount="120.0"/>
											<ScoreDistribution value="1" recordCount="0.0"/>
										</Node>
										<Node score="1" recordCount="23.0">
											<SimplePredicate field="double(ZIPCODE)" operator="lessOrEqual" value="2908.5"/>
											<ScoreDistribution value="0" recordCount="0.0"/>
											<ScoreDistribution value="1" recordCount="23.0"/>
										</Node>
										<Node score="0" recordCount="93.0">
											<SimplePredicate field="double(ZIPCODE)" operator="lessOrEqual" value="2911.5"/>
											<ScoreDistribution value="0" recordCount="93.0"/>
											<ScoreDistribution value="1" recordCount="0.0"/>
										</Node>
										<Node score="1" recordCount="36.0">
											<SimplePredicate field="double(ZIPCODE)" operator="lessOrEqual" value="2912.5"/>
											<ScoreDistribution value="0" recordCount="0.0"/>
											<ScoreDistribution value="1" recordCount="36.0"/>
										</Node>
										<Node score="0" recordCount="85.0">
											<True/>
											<ScoreDistribution value="0" recordCount="85.0"/>
											<ScoreDistribution value="1" recordCount="0.0"/>
										</Node>
									</Node>
									<Node score="1" recordCount="60.0">
										<True/>
										<ScoreDistribution value="0" recordCount="0.0"/>
										<ScoreDistribution value="1" recordCount="60.0"/>
									</Node>
								</Node>
								<Node score="0" recordCount="191.0">
									<True/>
									<ScoreDistribution value="0" recordCount="191.0"/>
									<ScoreDistribution value="1" recordCount="0.0"/>
								</Node>
							</Node>
							<Node score="1" recordCount="113.0">
								<SimplePredicate field="double(ZIPCODE)" operator="lessOrEqual" value="2938.0"/>
								<ScoreDistribution value="0" recordCount="0.0"/>
								<ScoreDistribution value="1" recordCount="113.0"/>
							</Node>
							<Node score="0" recordCount="161.0">
								<SimplePredicate field="double(ZIPCODE)" operator="lessOrEqual" value="2952.5"/>
								<ScoreDistribution value="0" recordCount="161.0"/>
								<ScoreDistribution value="1" recordCount="0.0"/>
							</Node>
							<Node>
								<SimplePredicate field="double(ZIPCODE)" operator="lessOrEqual" value="2982.5"/>
								<Node>
									<SimplePredicate field="double(ZIPCODE)" operator="lessOrEqual" value="2978.0"/>
									<Node>
										<SimplePredicate field="double(ZIPCODE)" operator="lessOrEqual" value="2964.5"/>
										<Node>
											<SimplePredicate field="double(ZIPCODE)" operator="lessOrEqual" value="2955.5"/>
											<Node score="1" recordCount="41.0">
												<SimplePredicate field="double(ZIPCODE)" operator="lessOrEqual" value="2953.5"/>
												<ScoreDistribution value="0" recordCount="0.0"/>
												<ScoreDistribution value="1" recordCount="41.0"/>
											</Node>
											<Node score="0" recordCount="13.0">
												<True/>
												<ScoreDistribution value="0" recordCount="13.0"/>
												<ScoreDistribution value="1" recordCount="0.0"/>
											</Node>
										</Node>
										<Node>
											<SimplePredicate field="double(day)" operator="lessOrEqual" value="26.5"/>
											<Node score="1" recordCount="45.0">
												<SimplePredicate field="double(month)" operator="lessOrEqual" value="9.5"/>
												<ScoreDistribution value="0" recordCount="0.0"/>
												<ScoreDistribution value="1" recordCount="45.0"/>
											</Node>
											<Node>
												<SimplePredicate field="double(day)" operator="lessOrEqual" value="12.5"/>
												<Node score="1" recordCount="3.0">
													<SimplePredicate field="double(ZIPCODE)" operator="lessOrEqual" value="2958.0"/>
													<ScoreDistribution value="0" recordCount="0.0"/>
													<ScoreDistribution value="1" recordCount="3.0"/>
												</Node>
												<Node score="0" recordCount="1.0">
													<True/>
													<ScoreDistribution value="0" recordCount="1.0"/>
													<ScoreDistribution value="1" recordCount="0.0"/>
												</Node>
											</Node>
											<Node score="1" recordCount="6.0">
												<True/>
												<ScoreDistribution value="0" recordCount="0.0"/>
												<ScoreDistribution value="1" recordCount="6.0"/>
											</Node>
										</Node>
										<Node score="0" recordCount="1.0">
											<SimplePredicate field="double(day)" operator="lessOrEqual" value="27.5"/>
											<ScoreDistribution value="0" recordCount="1.0"/>
											<ScoreDistribution value="1" recordCount="0.0"/>
										</Node>
										<Node score="1" recordCount="5.0">
											<True/>
											<ScoreDistribution value="0" recordCount="0.0"/>
											<ScoreDistribution value="1" recordCount="5.0"/>
										</Node>
									</Node>
									<Node score="0" recordCount="27.0">
										<SimplePredicate field="double(ZIPCODE)" operator="lessOrEqual" value="2972.0"/>
										<ScoreDistribution value="0" recordCount="27.0"/>
										<ScoreDistribution value="1" recordCount="0.0"/>
									</Node>
									<Node score="1" recordCount="11.0">
										<SimplePredicate field="double(ZIPCODE)" operator="lessOrEqual" value="2973.5"/>
										<ScoreDistribution value="0" recordCount="0.0"/>
										<ScoreDistribution value="1" recordCount="11.0"/>
									</Node>
									<Node score="0" recordCount="2.0">
										<True/>
										<ScoreDistribution value="0" recordCount="2.0"/>
										<ScoreDistribution value="1" recordCount="0.0"/>
									</Node>
								</Node>
								<Node score="1" recordCount="87.0">
									<True/>
									<ScoreDistribution value="0" recordCount="0.0"/>
									<ScoreDistribution value="1" recordCount="87.0"/>
								</Node>
							</Node>
							<Node>
								<SimplePredicate field="double(ZIPCODE)" operator="lessOrEqual" value="2984.5"/>
								<Node score="0" recordCount="99.0">
									<SimplePredicate field="double(ZIPCODE)" operator="lessOrEqual" value="2983.5"/>
									<ScoreDistribution value="0" recordCount="99.0"/>
									<ScoreDistribution value="1" recordCount="0.0"/>
								</Node>
								<Node score="1" recordCount="33.0">
									<True/>
									<ScoreDistribution value="0" recordCount="0.0"/>
									<ScoreDistribution value="1" recordCount="33.0"/>
								</Node>
							</Node>
							<Node score="0" recordCount="102.0">
								<True/>
								<ScoreDistribution value="0" recordCount="102.0"/>
								<ScoreDistribution value="1" recordCount="0.0"/>
							</Node>
						</Node>
						<Node score="1" recordCount="97.0">
							<True/>
							<ScoreDistribution value="0" recordCount="0.0"/>
							<ScoreDistribution value="1" recordCount="97.0"/>
						</Node>
					</Node>
					<Node>
						<SimplePredicate field="double(ZIPCODE)" operator="lessOrEqual" value="3086.5"/>
						<Node>
							<SimplePredicate field="double(ZIPCODE)" operator="lessOrEqual" value="3065.5"/>
							<Node>
								<SimplePredicate field="double(ZIPCODE)" operator="lessOrEqual" value="3064.5"/>
								<Node>
									<SimplePredicate field="double(ZIPCODE)" operator="lessOrEqual" value="3054.5"/>
									<Node>
										<SimplePredicate field="double(ZIPCODE)" operator="lessOrEqual" value="3049.0"/>
										<Node>
											<SimplePredicate field="double(ZIPCODE)" operator="lessOrEqual" value="3036.5"/>
											<Node score="0" recordCount="253.0">
												<SimplePredicate field="double(ZIPCODE)" operator="lessOrEqual" value="2994.5"/>
												<ScoreDistribution value="0" recordCount="253.0"/>
												<ScoreDistribution value="1" recordCount="0.0"/>
											</Node>
											<Node score="1" recordCount="39.0">
												<SimplePredicate field="double(ZIPCODE)" operator="lessOrEqual" value="3003.0"/>
												<ScoreDistribution value="0" recordCount="0.0"/>
												<ScoreDistribution value="1" recordCount="39.0"/>
											</Node>
											<Node>
												<SimplePredicate field="double(ZIPCODE)" operator="lessOrEqual" value="3033.5"/>
												<Node>
													<SimplePredicate field="double(ZIPCODE)" operator="lessOrEqual" value="3032.5"/>
													<Node>
														<SimplePredicate field="double(ZIPCODE)" operator="lessOrEqual" value="3024.5"/>
														<Node>
															<SimplePredicate field="double(ZIPCODE)" operator="lessOrEqual" value="3013.5"/>
															<Node score="0" recordCount="109.0">
																<SimplePredicate field="double(ZIPCODE)" operator="lessOrEqual" value="3012.5"/>
																<ScoreDistribution value="0" recordCount="109.0"/>
																<ScoreDistribution value="1" recordCount="0.0"/>
															</Node>
															<Node score="1" recordCount="22.0">
																<True/>
																<ScoreDistribution value="0" recordCount="0.0"/>
																<ScoreDistribution value="1" recordCount="22.0"/>
															</Node>
														</Node>
														<Node>
															<SimplePredicate field="double(ZIPCODE)" operator="lessOrEqual" value="3018.5"/>
															<Node score="0" recordCount="169.0">
																<SimplePredicate field="double(ZIPCODE)" operator="lessOrEqual" value="3015.5"/>
																<ScoreDistribution value="0" recordCount="169.0"/>
																<ScoreDistribution value="1" recordCount="0.0"/>
															</Node>
															<Node score="1" recordCount="12.0">
																<True/>
																<ScoreDistribution value="0" recordCount="0.0"/>
																<ScoreDistribution value="1" recordCount="12.0"/>
															</Node>
														</Node>
														<Node score="0" recordCount="290.0">
															<True/>
															<ScoreDistribution value="0" recordCount="290.0"/>
															<ScoreDistribution value="1" recordCount="0.0"/>
														</Node>
													</Node>
													<Node score="1" recordCount="54.0">
														<SimplePredicate field="double(ZIPCODE)" operator="lessOrEqual" value="3025.5"/>
														<ScoreDistribution value="0" recordCount="0.0"/>
														<ScoreDistribution value="1" recordCount="54.0"/>
													</Node>
													<Node score="0" recordCount="253.0">
														<SimplePredicate field="double(ZIPCODE)" operator="lessOrEqual" value="3028.5"/>
														<ScoreDistribution value="0" recordCount="253.0"/>
														<ScoreDistribution value="1" recordCount="0.0"/>
													</Node>
													<Node score="1" recordCount="34.0">
														<SimplePredicate field="double(ZIPCODE)" operator="lessOrEqual" value="3030.0"/>
														<ScoreDistribution value="0" recordCount="0.0"/>
														<ScoreDistribution value="1" recordCount="34.0"/>
													</Node>
													<Node score="0" recordCount="146.0">
